digraph Tree {
node [shape=box] ;0[label="mean area < 661.85\nentropy = 0.9852281360342515\nsamples = 21\nvalue = [ 9 12]\nclass = 1"] ;
1[label="radius error < 0.41695000000000004\nentropy = 0.39124356362925566\nsamples = 13\nvalue = [ 1 12]\nclass = 1"] ;
0 -> 1 ;

2[label="None\nentropy = 0.0\nsamples = 12\nvalue = [0, 12]\nclass = 1"] ;
1 -> 2 ;

3[label="None\nentropy = 0.0\nsamples = 1\nvalue = [1, 0]\nclass = 0"] ;
1 -> 3 ;

4[label="entropy = 0.0\nsamples = 7\nvalue = [7, 0]\nclass = 0"] ;
0 -> 4 ;

}
