|--- Entropy: 0.7219280948873623, values: [1 4 0],  outcome: 1
|--- Entropy: 0.9852281360342515, decision criteria: magnesium < 113.5, values: [4 0 3]
|   |   |--- Entropy: 0.8112781244591328, decision criteria: ash < 2.42, values: [1 0 3]
|   |   |   |--- Entropy: 0.0, values: [0, 0, 3],  outcome: 2
|   |   |   |--- Entropy: 0.0, values: [1, 0, 0],  outcome: 0
|   |   |--- Entropy: 0.0, values: [3, 0, 0],  outcome: 0
