digraph Tree {
node [shape=box] ;
0 [label="petal length (cm) <= 2.45\nentropy = 1.583\nsamples = 112\nvalue = [40, 35, 37]"] ;
1 [label="entropy = 0.0\nsamples = 40\nvalue = [40, 0, 0]"] ;
0 -> 1 [labeldistance=2.5, labelangle=45, headlabel="True"] ;
2 [label="petal width (cm) <= 1.75\nentropy = 0.999\nsamples = 72\nvalue = [0, 35, 37]"] ;
0 -> 2 [labeldistance=2.5, labelangle=-45, headlabel="False"] ;
3 [label="petal length (cm) <= 5.3\nentropy = 0.31\nsamples = 36\nvalue = [0, 34, 2]"] ;
2 -> 3 ;
4 [label="entropy = 0.0\nsamples = 34\nvalue = [0, 34, 0]"] ;
3 -> 4 ;
5 [label="entropy = 0.0\nsamples = 2\nvalue = [0, 0, 2]"] ;
3 -> 5 ;
6 [label="petal length (cm) <= 4.85\nentropy = 0.183\nsamples = 36\nvalue = [0, 1, 35]"] ;
2 -> 6 ;
7 [label="entropy = 0.918\nsamples = 3\nvalue = [0, 1, 2]"] ;
6 -> 7 ;
8 [label="entropy = 0.0\nsamples = 33\nvalue = [0, 0, 33]"] ;
6 -> 8 ;
}