digraph Tree {
node [shape=box] ;
0 [label="petal width (cm) <= 0.8\nentropy = 1.583\nsamples = 112\nvalue = [39, 35, 38]"] ;
1 [label="entropy = 0.0\nsamples = 39\nvalue = [39, 0, 0]"] ;
0 -> 1 [labeldistance=2.5, labelangle=45, headlabel="True"] ;
2 [label="petal width (cm) <= 1.75\nentropy = 0.999\nsamples = 73\nvalue = [0, 35, 38]"] ;
0 -> 2 [labeldistance=2.5, labelangle=-45, headlabel="False"] ;
3 [label="petal length (cm) <= 4.95\nentropy = 0.485\nsamples = 38\nvalue = [0, 34, 4]"] ;
2 -> 3 ;
4 [label="petal width (cm) <= 1.65\nentropy = 0.196\nsamples = 33\nvalue = [0, 32, 1]"] ;
3 -> 4 ;
5 [label="entropy = 0.0\nsamples = 32\nvalue = [0, 32, 0]"] ;
4 -> 5 ;
6 [label="entropy = 0.0\nsamples = 1\nvalue = [0, 0, 1]"] ;
4 -> 6 ;
7 [label="petal width (cm) <= 1.55\nentropy = 0.971\nsamples = 5\nvalue = [0, 2, 3]"] ;
3 -> 7 ;
8 [label="entropy = 0.0\nsamples = 3\nvalue = [0, 0, 3]"] ;
7 -> 8 ;
9 [label="entropy = 0.0\nsamples = 2\nvalue = [0, 2, 0]"] ;
7 -> 9 ;
10 [label="petal length (cm) <= 4.85\nentropy = 0.187\nsamples = 35\nvalue = [0, 1, 34]"] ;
2 -> 10 ;
11 [label="entropy = 1.0\nsamples = 2\nvalue = [0, 1, 1]"] ;
10 -> 11 ;
12 [label="entropy = 0.0\nsamples = 33\nvalue = [0, 0, 33]"] ;
10 -> 12 ;
}